SNNS network definition file V1.4-3D
generated at Mon Nov 15 10:09:10 2010

network name : default
source files :
no. of units : 80
no. of connections : 700
no. of unit types : 0
no. of site types : 0


learning function : Std_Backpropagation
update function   : Topological_Order


unit default section :

act      | bias     | st | subnet | layer | act func     | out func
---------|----------|----|--------|-------|--------------|-------------
 0.00000 |  0.00000 | h  |      0 |     1 | Act_Logistic | Out_Identity 
---------|----------|----|--------|-------|--------------|-------------


unit definition section :

no. | typeName | unitName | act      | bias     | st | position | act func | out func | sites
----|----------|----------|----------|----------|----|----------|----------|----------|-------
  1 |          | noName   |  1.00000 | -0.00064 | i  |  1, 3, 1 |||
  2 |          | noName   |  1.00000 | -0.05319 | i  |  2, 3, 1 |||
  3 |          | noName   |  1.00000 |  0.71166 | i  |  3, 3, 1 |||
  4 |          | noName   |  1.00000 | -0.35038 | i  |  4, 3, 1 |||
  5 |          | noName   |  1.00000 |  0.97693 | i  |  5, 3, 1 |||
  6 |          | noName   |  0.00000 |  0.05466 | i  |  1, 4, 1 |||
  7 |          | noName   |  0.00000 |  0.19266 | i  |  2, 4, 1 |||
  8 |          | noName   |  0.00000 | -0.98462 | i  |  3, 4, 1 |||
  9 |          | noName   |  0.00000 | -0.21506 | i  |  4, 4, 1 |||
 10 |          | noName   |  1.00000 | -0.08200 | i  |  5, 4, 1 |||
 11 |          | noName   |  0.00000 |  0.72832 | i  |  1, 5, 1 |||
 12 |          | noName   |  0.00000 |  0.06638 | i  |  2, 5, 1 |||
 13 |          | noName   |  0.00000 | -0.44755 | i  |  3, 5, 1 |||
 14 |          | noName   |  1.00000 | -0.82946 | i  |  4, 5, 1 |||
 15 |          | noName   |  0.00000 | -0.64415 | i  |  5, 5, 1 |||
 16 |          | noName   |  0.00000 |  0.87567 | i  |  1, 6, 1 |||
 17 |          | noName   |  0.00000 | -0.49364 | i  |  2, 6, 1 |||
 18 |          | noName   |  1.00000 |  0.79272 | i  |  3, 6, 1 |||
 19 |          | noName   |  0.00000 |  0.15091 | i  |  4, 6, 1 |||
 20 |          | noName   |  0.00000 | -0.83392 | i  |  5, 6, 1 |||
 21 |          | noName   |  0.00000 | -0.37278 | i  |  1, 7, 1 |||
 22 |          | noName   |  1.00000 |  0.39463 | i  |  2, 7, 1 |||
 23 |          | noName   |  0.00000 |  0.62761 | i  |  3, 7, 1 |||
 24 |          | noName   |  0.00000 |  0.36174 | i  |  4, 7, 1 |||
 25 |          | noName   |  0.00000 |  0.74602 | i  |  5, 7, 1 |||
 26 |          | noName   |  0.00000 | -0.82427 | i  |  1, 8, 1 |||
 27 |          | noName   |  1.00000 | -0.88971 | i  |  2, 8, 1 |||
 28 |          | noName   |  0.00000 |  0.72021 | i  |  3, 8, 1 |||
 29 |          | noName   |  0.00000 | -0.60509 | i  |  4, 8, 1 |||
 30 |          | noName   |  0.00000 |  0.62224 | i  |  5, 8, 1 |||
 31 |          | noName   |  1.00000 |  0.89178 | i  |  1, 9, 1 |||
 32 |          | noName   |  1.00000 |  0.11087 | i  |  2, 9, 1 |||
 33 |          | noName   |  1.00000 | -0.27512 | i  |  3, 9, 1 |||
 34 |          | noName   |  1.00000 |  0.00516 | i  |  4, 9, 1 |||
 35 |          | noName   |  1.00000 | -0.01236 | i  |  5, 9, 1 |||
 36 |          | noName   |  0.03226 | -1.95194 | h  |  8, 1, 1 |||
 37 |          | noName   |  0.04357 | -0.45093 | h  |  8, 2, 1 |||
 38 |          | noName   |  0.07331 | -1.80207 | h  |  8, 3, 1 |||
 39 |          | noName   |  0.90452 |  1.96476 | h  |  8, 4, 1 |||
 40 |          | noName   |  0.20992 | -0.31289 | h  |  8, 5, 1 |||
 41 |          | noName   |  0.98525 |  0.11574 | h  |  8, 6, 1 |||
 42 |          | noName   |  0.08018 |  1.41867 | h  |  8, 7, 1 |||
 43 |          | noName   |  0.76493 |  1.61740 | h  |  8, 8, 1 |||
 44 |          | noName   |  0.02156 |  0.23312 | h  |  8, 9, 1 |||
 45 |          | noName   |  0.08494 | -1.06400 | h  |  8,10, 1 |||
 46 |          | noName   |  0.99377 |  0.17931 | o  | 12, 3, 1 |||
 47 |          | noName   |  0.96038 |  1.13296 | o  | 13, 3, 1 |||
 48 |          | noName   |  0.90772 |  1.67542 | o  | 14, 3, 1 |||
 49 |          | noName   |  0.97234 |  1.12482 | o  | 15, 3, 1 |||
 50 |          | noName   |  0.99484 | -0.90718 | o  | 16, 3, 1 |||
 51 |          | noName   |  0.05784 |  0.74613 | o  | 12, 4, 1 |||
 52 |          | noName   |  0.00174 | -1.13179 | o  | 13, 4, 1 |||
 53 |          | noName   |  0.06667 | -1.23283 | o  | 14, 4, 1 |||
 54 |          | noName   |  0.00111 | -0.91190 | o  | 15, 4, 1 |||
 55 |          | noName   |  0.98492 |  1.07068 | o  | 16, 4, 1 |||
 56 |          | noName   |  0.00131 | -0.18907 | o  | 12, 5, 1 |||
 57 |          | noName   |  0.04358 |  0.21072 | o  | 13, 5, 1 |||
 58 |          | noName   |  0.02384 |  0.22116 | o  | 14, 5, 1 |||
 59 |          | noName   |  0.90495 | -1.38287 | o  | 15, 5, 1 |||
 60 |          | noName   |  0.06850 |  0.34721 | o  | 16, 5, 1 |||
 61 |          | noName   |  0.00982 |  0.01713 | o  | 12, 6, 1 |||
 62 |          | noName   |  0.06502 | -0.38008 | o  | 13, 6, 1 |||
 63 |          | noName   |  0.97119 |  0.47346 | o  | 14, 6, 1 |||
 64 |          | noName   |  0.04621 | -0.47338 | o  | 15, 6, 1 |||
 65 |          | noName   |  0.01199 |  0.42012 | o  | 16, 6, 1 |||
 66 |          | noName   |  0.00906 | -0.17685 | o  | 12, 7, 1 |||
 67 |          | noName   |  0.84567 |  0.00239 | o  | 13, 7, 1 |||
 68 |          | noName   |  0.00146 |  1.21152 | o  | 14, 7, 1 |||
 69 |          | noName   |  0.03622 | -0.82958 | o  | 15, 7, 1 |||
 70 |          | noName   |  0.01851 | -0.43237 | o  | 16, 7, 1 |||
 71 |          | noName   |  0.42378 |  0.40184 | o  | 12, 8, 1 |||
 72 |          | noName   |  0.00036 | -1.19411 | o  | 13, 8, 1 |||
 73 |          | noName   |  0.10817 |  0.52010 | o  | 14, 8, 1 |||
 74 |          | noName   |  0.00005 |  0.07968 | o  | 15, 8, 1 |||
 75 |          | noName   |  0.13896 | -0.02289 | o  | 16, 8, 1 |||
 76 |          | noName   |  0.89347 | -0.91456 | o  | 12, 9, 1 |||
 77 |          | noName   |  0.95974 |  0.14173 | o  | 13, 9, 1 |||
 78 |          | noName   |  0.99054 |  0.35777 | o  | 14, 9, 1 |||
 79 |          | noName   |  0.97616 | -0.56792 | o  | 15, 9, 1 |||
 80 |          | noName   |  0.86108 | -1.54513 | o  | 16, 9, 1 |||
----|----------|----------|----------|----------|----|----------|----------|----------|-------


connection definition section :

target | site | source:weight
-------|------|---------------------------------------------------------------------------------------------------------------------
    36 |      | 35:-0.53811, 34: 1.40349, 33:-0.85213, 32:-1.18266, 31: 1.13049, 30: 0.69601, 29:-1.11161, 28: 0.29697, 27: 1.22266,
                26: 0.46815, 25: 0.10217, 24: 0.29004, 23: 1.33746, 22:-0.04907, 21: 0.87618, 20:-0.29040, 19: 1.63617, 18: 1.42859,
                17: 0.95575, 16:-0.51721, 15:-0.61773, 14:-1.45837, 13: 0.23557, 12:-0.60120, 11: 0.97092, 10: 0.26603,  9: 1.01512,
                 8:-0.98309,  7:-0.39396,  6: 1.50046,  5:-0.21812,  4: 0.23802,  3:-1.04076,  2:-1.62010,  1:-0.17929
    37 |      | 35: 1.88975, 34:-1.20295, 33:-1.05888, 32: 0.11554, 31:-0.03668, 30:-1.42608, 29: 1.22009, 28:-0.55207, 27: 0.25302,
                26:-0.87806, 25: 0.63001, 24:-0.06178, 23: 0.42126, 22:-1.06165, 21: 0.86110, 20: 1.14624, 19: 1.06549, 18:-0.37823,
                17: 0.79207, 16: 1.91926, 15:-0.09101, 14:-1.17760, 13:-0.02512, 12:-0.69950, 11: 0.10319, 10:-1.40505,  9: 0.18388,
                 8:-0.33822,  7: 1.20274,  6:-0.25015,  5: 1.11033,  4:-1.38000,  3: 0.98997,  2: 0.51965,  1: 0.18487
    38 |      | 35: 0.65531, 34: 2.13165, 33:-0.88929, 32: 2.04226, 31:-0.49629, 30: 2.68144, 29:-0.20502, 28:-0.72772, 27: 0.41522,
                26: 0.68609, 25: 0.91076, 24: 0.38077, 23: 0.24322, 22:-0.57889, 21: 1.24869, 20:-0.19141, 19:-0.85055, 18:-0.69027,
                17: 0.13426, 16: 0.13564, 15:-0.92079, 14:-0.38450, 13:-0.18936, 12: 0.56083, 11: 0.91720, 10:-0.58053,  9: 0.75627,
                 8:-0.77594,  7:-0.51794,  6: 0.26515,  5:-0.82965,  4:-1.14571,  3:-0.03252,  2:-0.15911,  1:-0.19258
    39 |      | 35: 2.28832, 34: 1.00011, 33:-0.37686, 32: 0.11248, 31: 0.26119, 30:-0.53032, 29: 0.67363, 28: 0.25379, 27:-1.93370,
                26: 0.88665, 25:-2.64925, 24:-0.03396, 23:-0.85328, 22: 0.73631, 21: 0.93790, 20:-1.49304, 19:-0.12920, 18:-0.71255,
                17: 0.48815, 16:-0.45246, 15: 1.21164, 14: 0.58635, 13: 0.38007, 12: 0.42823, 11:-0.03156, 10: 0.31585,  9:-0.99913,
                 8:-1.14810,  7: 1.82415,  6:-0.97682,  5:-1.31018,  4: 0.82332,  3: 0.37316,  2:-1.10437,  1:-0.77570
    40 |      | 35:-1.09168, 34: 0.26873, 33: 0.79868, 32: 0.73178, 31: 0.26241, 30:-0.26600, 29:-0.11096, 28:-0.26618, 27: 0.22901,
                26: 1.96697, 25:-0.82406, 24:-1.00316, 23: 0.11651, 22: 0.22202, 21: 2.18054, 20: 0.59107, 19:-0.01745, 18:-0.19306,
                17: 0.11648, 16: 0.73848, 15: 1.75678, 14:-0.57777, 13:-2.21918, 12:-0.51627, 11:-0.61947, 10:-0.32827,  9:-0.93196,
                 8:-1.18115,  7:-0.72864,  6:-1.75481,  5:-0.77383,  4:-0.54278,  3: 0.57441,  2:-0.08589,  1:-0.50629
    41 |      | 35: 0.89290, 34: 0.16218, 33: 0.36196, 32: 0.01278, 31: 0.55523, 30: 0.53019, 29:-0.14668, 28: 0.61304, 27:-0.44977,
                26: 1.43204, 25: 0.55906, 24: 0.61050, 23: 0.97582, 22: 0.73340, 21:-0.45418, 20:-0.71346, 19: 0.40790, 18:-0.59418,
                17: 0.89236, 16:-0.37549, 15:-0.05832, 14: 0.82367, 13: 0.77586, 12: 0.84711, 11: 0.10845, 10: 0.62219,  9: 0.79806,
                 8: 0.83868,  7: 0.01829,  6: 0.19280,  5: 0.63414,  4: 0.30082,  3: 0.30777,  2: 0.11643,  1:-0.39377
    42 |      | 35:-0.05597, 34:-1.09198, 33: 2.06570, 32:-0.48770, 31:-2.32235, 30: 0.32722, 29:-0.37369, 28: 0.47777, 27: 0.19996,
                26:-1.00913, 25: 0.12389, 24:-0.77155, 23:-0.90605, 22:-0.84315, 21:-1.23663, 20: 0.03832, 19:-1.07588, 18:-1.66091,
                17:-0.74390, 16:-0.45710, 15: 1.05061, 14: 0.36580, 13:-0.28457, 12:-0.11061, 11: 0.12427, 10: 1.90017,  9: 0.41785,
                 8:-0.49095,  7:-0.26696,  6: 0.44516,  5:-0.07514,  4:-1.26887,  3:-0.14819,  2:-0.65730,  1: 0.22139
    43 |      | 35: 0.13933, 34: 1.26649, 33: 0.92779, 32:-0.08512, 31:-1.24373, 30: 1.07215, 29: 0.17432, 28: 0.16329, 27:-1.07624,
                26: 0.07861, 25:-1.41482, 24: 0.99313, 23: 1.09759, 22: 0.19926, 21:-1.13310, 20:-0.90600, 19:-0.62718, 18:-0.64895,
                17:-0.70863, 16:-0.96484, 15:-1.96735, 14: 1.17809, 13: 0.03762, 12: 0.06986, 11:-0.19824, 10:-1.18477,  9:-0.36972,
                 8:-0.00249,  7: 0.46930,  6: 0.65522,  5: 2.95240,  4: 0.44552,  3:-0.87700,  2:-0.83705,  1:-1.59350
    44 |      | 35: 1.40879, 34:-0.75998, 33:-1.18149, 32:-1.04975, 31:-1.06919, 30: 0.58119, 29:-0.00568, 28:-0.77173, 27:-0.60380,
                26: 0.29031, 25: 0.60006, 24:-0.26495, 23:-0.18941, 22:-1.07981, 21:-0.88078, 20: 0.50485, 19: 1.36256, 18:-0.64428,
                17: 1.60053, 16: 0.38296, 15:-2.26843, 14:-0.57817, 13:-1.74563, 12:-0.64370, 11:-0.49663, 10:-1.96460,  9:-0.09949,
                 8:-0.14501,  7: 0.02388,  6: 0.33948,  5: 2.53217,  4: 0.34331,  3: 0.77726,  2: 0.54158,  1:-0.72010
    45 |      | 35:-1.02016, 34: 0.54892, 33:-0.20689, 32:-1.16487, 31:-1.25540, 30: 1.22274, 29:-1.49202, 28: 0.75034, 27: 0.30699,
                26:-1.62694, 25: 0.75343, 24:-0.26502, 23: 0.49998, 22:-0.56549, 21:-1.09244, 20:-1.30813, 19: 1.31297, 18: 1.67284,
                17: 0.38673, 16: 0.91645, 15: 0.26189, 14: 0.00745, 13: 0.60640, 12:-0.38646, 11: 1.28584, 10: 0.15325,  9: 1.17074,
                 8: 1.92062,  7: 0.78840,  6: 0.16610,  5:-1.60167,  4: 1.25325,  3: 1.17749,  2: 0.65672,  1:-1.27550
    46 |      | 45:-1.45685, 44:-1.82122, 43:-1.69098, 42: 0.42869, 41: 0.49484, 40: 0.18317, 39:-1.82417, 38:-1.27004, 37: 1.59977,
                36: 2.14883
    47 |      | 45: 2.08146, 44:-0.08825, 43:-0.85986, 42:-2.04403, 41: 1.27469, 40: 0.03665, 39:-0.65928, 38:-0.41959, 37: 0.36830,
                36:-1.79775
    48 |      | 45: 3.02475, 44: 0.63082, 43:-1.69273, 42:-2.48782, 41: 0.77858, 40: 1.07776, 39: 0.08942, 38:-1.00307, 37:-0.08567,
                36:-1.71686
    49 |      | 45: 2.30193, 44: 0.31786, 43:-0.20214, 42:-1.34973, 41: 0.74618, 40: 0.17987, 39: 0.65421, 38:-0.54347, 37: 0.16107,
                36:-0.60560
    50 |      | 45:-2.45018, 44: 3.34640, 43: 2.31690, 42: 1.05466, 41:-0.26726, 40:-1.75354, 39:-2.08968, 38: 0.69975, 37: 1.68276,
                36: 0.86450
    51 |      | 45:-0.61890, 44:-0.34327, 43: 0.41088, 42: 0.57724, 41:-0.11829, 40:-1.17371, 39:-1.97090, 38: 2.84207, 37: 1.69726,
                36: 2.73210
    52 |      | 45: 0.19482, 44:-0.43116, 43:-1.28623, 42:-0.15470, 41:-0.97348, 40:-0.40909, 39: 1.61858, 38: 0.05721, 37: 0.61496,
                36: 0.97636
    53 |      | 45: 1.89999, 44:-0.41840, 43: 0.55356, 42:-1.23139, 41:-0.19430, 40:-1.10319, 39:-0.76016, 38:-0.97382, 37:-0.97646,
                36:-1.04551
    54 |      | 45: 0.00547, 44:-0.49427, 43:-2.11697, 42:-1.34455, 41:-0.45724, 40:-1.08336, 39:-0.83493, 38: 1.01658, 37: 0.30555,
                36: 1.03471
    55 |      | 45:-0.80460, 44:-2.51171, 43:-1.08069, 42: 1.64208, 41: 0.87460, 40: 1.20937, 39: 1.48553, 38:-0.74797, 37:-0.83610,
                36: 0.28680
    56 |      | 45: 1.24606, 44: 0.97166, 43:-1.32846, 42: 0.10290, 41: 0.07949, 40:-0.29471, 39:-1.01230, 38: 2.32027, 37: 1.70477,
                36: 1.95473
    57 |      | 45:-0.79604, 44:-0.37223, 43: 1.66324, 42:-0.28372, 41:-0.38716, 40:-0.68646, 39: 1.05795, 38:-1.15502, 37:-1.27149,
                36: 1.19652
    58 |      | 45: 0.81963, 44:-2.77533, 43: 0.55818, 42:-2.49968, 41:-0.49749, 40:-3.89462, 39:-0.05496, 38: 0.20699, 37: 1.77718,
                36: 1.38053
    59 |      | 45:-2.75663, 44:-0.06487, 43: 2.02822, 42: 0.40512, 41: 0.11094, 40:-1.48409, 39: 0.63309, 38:-1.64992, 37:-1.29071,
                36:-0.03273
    60 |      | 45: 0.11142, 44:-1.70348, 43:-3.66785, 42: 1.89011, 41: 0.31727, 40: 2.25457, 39: 1.10445, 38: 0.12846, 37: 1.07595,
                36:-0.72064
    61 |      | 45: 0.25450, 44: 0.02225, 43:-3.47133, 42:-1.96193, 41: 0.19459, 40: 2.35325, 39: 0.15776, 38: 1.74289, 37: 2.49955,
                36: 1.46196
    62 |      | 45: 0.42702, 44: 2.65627, 43:-1.64924, 42:-1.88777, 41:-1.46308, 40:-0.23145, 39: 0.07318, 38:-0.73007, 37: 1.68673,
                36: 1.62306
    63 |      | 45: 4.12557, 44: 0.27655, 43: 0.45189, 42:-2.63714, 41: 1.28807, 40:-0.27921, 39:-0.36345, 38:-0.99151, 37:-1.24298,
                36: 2.83244
    64 |      | 45: 1.89346, 44: 1.60467, 43:-1.28245, 42:-3.13391, 41:-0.41347, 40: 0.37269, 39:-0.20325, 38:-1.07230, 37: 2.26060,
                36: 0.75716
    65 |      | 45:-1.38183, 44: 2.11560, 43:-4.79211, 42: 1.64275, 41: 1.05680, 40: 1.00152, 39:-2.73033, 38:-1.01123, 37: 2.58509,
                36: 0.10031
    66 |      | 45:-1.95398, 44:-0.43089, 43:-2.29954, 42:-1.04769, 41: 0.94663, 40: 2.93575, 39: 1.82463, 38: 1.72566, 37: 1.40414,
                36: 1.87304
    67 |      | 45:-1.71114, 44:-0.24399, 43: 0.97030, 42:-2.49202, 41:-1.48282, 40:-0.65089, 39: 1.56466, 38:-1.05192, 37:-2.09335,
                36:-0.92536
    68 |      | 45: 1.38957, 44:-1.86410, 43:-0.02554, 42: 0.14162, 41: 0.99432, 40: 0.08638, 39:-1.36876, 38: 0.48147, 37:-1.06958,
                36: 0.78508
    69 |      | 45:-0.74707, 44:-0.43882, 43: 0.75062, 42:-1.30536, 41:-1.28005, 40:-1.12304, 39: 1.70226, 38: 0.77521, 37:-1.44680,
                36: 0.55286
    70 |      | 45: 1.04688, 44: 0.35611, 43:-1.85979, 42: 1.53634, 41: 0.74735, 40:-0.65175, 39:-2.10781, 38: 2.45108, 37: 0.41328,
                36:-0.06907
    71 |      | 45:-2.62044, 44:-1.68689, 43:-0.36946, 42:-1.74277, 41: 1.11308, 40: 3.34420, 39: 1.85861, 38: 2.37972, 37:-0.93496,
                36: 1.91983
    72 |      | 45:-0.24311, 44:-2.57023, 43:-2.01201, 42: 0.76559, 41:-1.05561, 40:-0.87646, 39:-3.45944, 38: 0.27593, 37: 1.02693,
                36: 1.92508
    73 |      | 45: 1.14441, 44:-0.94304, 43: 1.45415, 42: 0.87575, 41:-0.48191, 40:-2.18300, 39:-0.56958, 38:-1.27932, 37:-0.46136,
                36:-1.39423
    74 |      | 45:-1.88001, 44:-0.90726, 43:-0.13838, 42:-0.01077, 41:-0.47316, 40: 0.90106, 39:-1.86703, 38:-0.44420, 37: 1.35028,
                36:-0.43349
    75 |      | 45: 1.81962, 44: 1.12192, 43:-0.13046, 42:-0.57300, 41:-0.34111, 40:-0.46819, 39:-1.78583, 38: 3.01145, 37:-1.87092,
                36: 2.02611
    76 |      | 45:-2.46560, 44:-1.40607, 43:-1.58691, 42:-3.16477, 41:-0.10698, 40: 0.51311, 39: 0.18467, 38: 2.14308, 37: 0.56018,
                36: 2.52808
    77 |      | 45:-1.47080, 44:-1.66811, 43:-0.24460, 42:-1.46763, 41: 1.18088, 40: 0.37876, 39: 0.12522, 38: 2.63622, 37:-0.10899,
                36:-0.79603
    78 |      | 45: 0.12917, 44:-2.72128, 43: 1.00020, 42: 1.41902, 41: 1.32555, 40: 1.38914, 39:-1.75098, 38: 1.31510, 37:-1.33320,
                36:-1.19248
    79 |      | 45:-0.02396, 44:-1.08433, 43: 0.21739, 42:-1.87120, 41: 1.03397, 40: 0.04550, 39: 0.25872, 38: 1.84704, 37:-1.56418,
                36: 1.07187
    80 |      | 45:-1.92729, 44: 1.70635, 43:-1.03011, 42:-2.37239, 41:-0.12665, 40:-1.17871, 39: 3.93172, 38: 2.32503, 37: 3.35459,
                36: 0.29331
-------|------|---------------------------------------------------------------------------------------------------------------------


layer definition section :

layer | unitNo.
------|----------------------------------------------------------------------------------------------------------------------------
    2 | 36, 37, 38, 39, 40, 41, 42, 43, 44, 45
    3 | 46, 47, 48, 49, 50, 51, 52, 53, 54, 55, 56, 57, 58, 59, 60, 61, 62, 63, 64, 65, 66, 67, 68, 69, 70, 71, 72, 73, 74, 75, 76,
        77, 78, 79, 80
------|----------------------------------------------------------------------------------------------------------------------------
