SNNS network definition file V1.4-3D
generated at Tue Dec 15 09:05:11 2009

network name : default
source files :
no. of units : 81
no. of connections : 710
no. of unit types : 0
no. of site types : 0


learning function : Std_Backpropagation
update function   : Topological_Order


unit default section :

act      | bias     | st | subnet | layer | act func     | out func
---------|----------|----|--------|-------|--------------|-------------
 0.00000 |  0.00000 | h  |      0 |     1 | Act_Logistic | Out_Identity 
---------|----------|----|--------|-------|--------------|-------------


unit definition section :

no. | typeName | unitName | act      | bias     | st | position | act func | out func | sites
----|----------|----------|----------|----------|----|----------|----------|----------|-------
  1 |          | noName   |  1.00000 |  0.71833 | i  |  1, 1, 1 |||
  2 |          | noName   |  1.00000 |  0.08524 | i  |  2, 1, 1 |||
  3 |          | noName   |  1.00000 | -0.54453 | i  |  3, 1, 1 |||
  4 |          | noName   |  1.00000 | -0.75452 | i  |  4, 1, 1 |||
  5 |          | noName   |  1.00000 | -0.89815 | i  |  5, 1, 1 |||
  6 |          | noName   |  0.00000 | -0.32707 | i  |  1, 2, 1 |||
  7 |          | noName   |  0.00000 | -0.83046 | i  |  2, 2, 1 |||
  8 |          | noName   |  0.00000 | -0.79529 | i  |  3, 2, 1 |||
  9 |          | noName   |  0.00000 |  0.90784 | i  |  4, 2, 1 |||
 10 |          | noName   |  1.00000 | -0.15557 | i  |  5, 2, 1 |||
 11 |          | noName   |  0.00000 | -0.09992 | i  |  1, 3, 1 |||
 12 |          | noName   |  0.00000 |  0.41949 | i  |  2, 3, 1 |||
 13 |          | noName   |  0.00000 |  0.08464 | i  |  3, 3, 1 |||
 14 |          | noName   |  1.00000 |  0.08030 | i  |  4, 3, 1 |||
 15 |          | noName   |  0.00000 |  0.07058 | i  |  5, 3, 1 |||
 16 |          | noName   |  0.00000 | -0.64652 | i  |  1, 4, 1 |||
 17 |          | noName   |  0.00000 |  0.19671 | i  |  2, 4, 1 |||
 18 |          | noName   |  1.00000 |  0.21462 | i  |  3, 4, 1 |||
 19 |          | noName   |  0.00000 |  0.43724 | i  |  4, 4, 1 |||
 20 |          | noName   |  0.00000 | -0.49097 | i  |  5, 4, 1 |||
 21 |          | noName   |  0.00000 |  0.77118 | i  |  1, 5, 1 |||
 22 |          | noName   |  1.00000 |  0.26919 | i  |  2, 5, 1 |||
 23 |          | noName   |  0.00000 | -0.95606 | i  |  3, 5, 1 |||
 24 |          | noName   |  0.00000 | -0.34587 | i  |  4, 5, 1 |||
 25 |          | noName   |  0.00000 |  0.93624 | i  |  5, 5, 1 |||
 26 |          | noName   |  1.00000 | -0.12792 | i  |  1, 6, 1 |||
 27 |          | noName   |  0.00000 | -0.85796 | i  |  2, 6, 1 |||
 28 |          | noName   |  0.00000 |  0.09041 | i  |  3, 6, 1 |||
 29 |          | noName   |  0.00000 |  0.37073 | i  |  4, 6, 1 |||
 30 |          | noName   |  0.00000 |  0.08024 | i  |  5, 6, 1 |||
 31 |          | noName   |  1.00000 | -0.83729 | i  |  1, 7, 1 |||
 32 |          | noName   |  1.00000 |  0.25608 | i  |  2, 7, 1 |||
 33 |          | noName   |  1.00000 | -0.89140 | i  |  3, 7, 1 |||
 34 |          | noName   |  1.00000 | -0.86572 | i  |  4, 7, 1 |||
 35 |          | noName   |  1.00000 | -0.64408 | i  |  5, 7, 1 |||
 36 |          | noName   |  0.11760 | -0.71706 | h  |  7, 1, 1 |||
 37 |          | noName   |  0.99997 |  0.74216 | h  |  7, 2, 1 |||
 38 |          | noName   |  0.99963 |  0.78704 | h  |  7, 3, 1 |||
 39 |          | noName   |  0.87526 | -0.55167 | h  |  7, 4, 1 |||
 40 |          | noName   |  0.01499 |  0.17446 | h  |  7, 5, 1 |||
 41 |          | noName   |  0.00072 |  0.00512 | h  |  7, 6, 1 |||
 42 |          | noName   |  0.11149 |  0.20638 | h  |  7, 7, 1 |||
 43 |          | noName   |  0.99909 | -0.02679 | h  |  7, 8, 1 |||
 44 |          | noName   |  0.18402 |  0.54019 | h  |  7, 9, 1 |||
 45 |          | noName   |  0.09675 |  0.22622 | h  |  7,10, 1 |||
 46 |          | noName   |  0.09911 | -0.98625 | o  | 10, 1, 1 |||
 47 |          | noName   |  0.00703 |  0.66219 | o  | 11, 1, 1 |||
 48 |          | noName   |  0.09981 |  0.70049 | o  | 12, 1, 1 |||
 49 |          | noName   |  0.00333 | -0.28022 | o  | 13, 1, 1 |||
 50 |          | noName   |  0.00004 |  0.81237 | o  | 14, 1, 1 |||
 51 |          | noName   |  0.00058 | -0.93261 | o  | 15, 1, 1 |||
 52 |          | noName   |  0.00163 | -0.75103 | o  | 10, 2, 1 |||
 53 |          | noName   |  0.09886 | -0.94381 | o  | 11, 2, 1 |||
 54 |          | noName   |  0.09905 | -0.65731 | o  | 12, 2, 1 |||
 55 |          | noName   |  0.09848 |  0.33768 | o  | 13, 2, 1 |||
 56 |          | noName   |  0.00010 |  0.17735 | o  | 14, 2, 1 |||
 57 |          | noName   |  0.00154 | -0.49941 | o  | 15, 2, 1 |||
 58 |          | noName   |  0.09829 |  0.30831 | o  | 10, 3, 1 |||
 59 |          | noName   |  0.00003 |  0.24232 | o  | 11, 3, 1 |||
 60 |          | noName   |  0.08461 | -0.75119 | o  | 12, 3, 1 |||
 61 |          | noName   |  0.00228 |  0.38983 | o  | 13, 3, 1 |||
 62 |          | noName   |  0.00064 | -0.98130 | o  | 14, 3, 1 |||
 63 |          | noName   |  0.00244 | -0.79980 | o  | 15, 3, 1 |||
 64 |          | noName   |  0.07873 |  0.66200 | o  | 10, 4, 1 |||
 65 |          | noName   |  0.00500 | -0.77491 | o  | 11, 4, 1 |||
 66 |          | noName   |  0.00009 | -0.62612 | o  | 12, 4, 1 |||
 67 |          | noName   |  0.00013 |  0.14832 | o  | 13, 4, 1 |||
 68 |          | noName   |  0.00014 |  0.12469 | o  | 14, 4, 1 |||
 69 |          | noName   |  0.00212 |  0.37524 | o  | 15, 4, 1 |||
 70 |          | noName   |  0.00330 |  0.63797 | o  | 10, 5, 1 |||
 71 |          | noName   |  0.00029 | -0.74544 | o  | 11, 5, 1 |||
 72 |          | noName   |  0.01357 | -0.72952 | o  | 12, 5, 1 |||
 73 |          | noName   |  0.07128 |  0.44139 | o  | 13, 5, 1 |||
 74 |          | noName   |  0.00268 | -0.64975 | o  | 14, 5, 1 |||
 75 |          | noName   |  0.04031 |  0.09292 | o  | 15, 5, 1 |||
 76 |          | noName   |  0.00435 | -0.10582 | o  | 10, 6, 1 |||
 77 |          | noName   |  0.00002 | -0.74552 | o  | 11, 6, 1 |||
 78 |          | noName   |  0.00012 |  0.85026 | o  | 12, 6, 1 |||
 79 |          | noName   |  0.04995 |  0.46359 | o  | 13, 6, 1 |||
 80 |          | noName   |  0.03648 | -0.18541 | o  | 14, 6, 1 |||
 81 |          | noName   |  0.90007 |  0.58210 | o  | 15, 6, 1 |||
----|----------|----------|----------|----------|----|----------|----------|----------|-------


connection definition section :

target | site | source:weight
-------|------|---------------------------------------------------------------------------------------------------------------------
    36 |      |  1: 0.36760,  2:-0.86071,  3:-0.12859,  4: 0.52415,  5: 0.20121,  6: 0.61169,  7: 0.35162,  8:-0.16505,  9:-0.51086,
                10:-0.71805, 11:-0.18627, 12: 0.41030, 13:-0.75778, 14:-0.58525, 15: 0.63387, 16:-0.37478, 17:-0.45604, 18: 0.95899,
                19: 0.01148, 20: 0.47610, 21: 0.43111, 22:-0.39430, 23: 0.16502, 24:-0.90306, 25: 0.96207, 26: 0.55356, 27: 0.84609,
                28:-0.84621, 29:-0.80579, 30: 0.96676, 31:-0.16497, 32: 0.61978, 33: 0.80771, 34: 0.01412, 35:-0.06253
    37 |      |  1:-0.79681,  2: 0.27853,  3: 0.11579,  4: 0.60110,  5:-0.06087,  6: 0.02177,  7:-0.20472,  8:-0.87489,  9:-0.48874,
                10:-0.75557, 11: 0.40139, 12:-0.75618, 13: 0.87562, 14: 0.06158, 15:-0.16602, 16:-0.40839, 17: 0.88693, 18: 0.25581,
                19: 0.51677, 20: 0.81689, 21: 0.85923, 22: 0.88094, 23:-0.10025, 24: 0.65075, 25:-0.85560, 26:-0.36960, 27: 0.80920,
                28:-0.35819, 29: 0.20272, 30:-0.34741, 31: 0.30009, 32: 0.97525, 33: 0.65511, 34: 0.58096, 35:-0.02562
    38 |      |  1: 0.03265,  2:-0.61585,  3:-0.53705,  4:-0.13952,  5: 0.65318,  6:-0.79353,  7:-0.87285,  8:-0.99004,  9: 0.88015,
                10: 0.70909, 11:-0.32606, 12:-0.99754, 13: 0.16888, 14: 0.67384, 15:-0.91329, 16: 0.95880, 17: 0.80184, 18:-0.13883,
                19:-0.80371, 20:-0.05499, 21:-0.66634, 22:-0.30520, 23: 0.80479, 24:-0.26759, 25: 0.65788, 26:-0.81906, 27: 0.57413,
                28:-0.66404, 29:-0.77959, 30:-0.90715, 31: 0.75852, 32: 0.57811, 33:-0.66389, 34: 0.23656, 35:-0.60485
    39 |      |  1: 0.38157,  2: 0.13956,  3: 0.92133,  4:-0.52749,  5:-0.49760,  6:-0.54394,  7:-0.16612,  8: 0.98898,  9: 0.67686,
                10:-0.08991, 11:-0.37247, 12:-0.21064, 13:-0.96789, 14:-0.03828, 15: 0.85443, 16:-0.48336, 17:-0.65857, 18:-0.34415,
                19: 0.38397, 20:-0.37062, 21: 0.02899, 22:-0.60398, 23: 0.87497, 24:-0.14966, 25:-0.00806, 26:-0.82875, 27:-0.14597,
                28:-0.08962, 29: 0.33828, 30:-0.54781, 31: 0.57531, 32:-0.65781, 33:-0.19127, 34:-0.99400, 35:-0.46863
    40 |      |  1: 0.28923,  2: 0.38141,  3:-0.25698,  4: 0.97723,  5: 0.08896,  6: 0.01317,  7: 0.35974,  8: 0.90626,  9: 0.82211,
                10:-0.52205, 11:-0.19588, 12:-0.85033, 13: 0.05481, 14:-0.62881, 15: 0.38687, 16: 0.37322, 17:-0.40027, 18: 0.96213,
                19:-0.52360, 20: 0.41284, 21: 0.44161, 22:-0.79340, 23: 0.16643, 24:-0.50497, 25:-0.15534, 26:-0.24763, 27: 0.22011,
                28:-0.46066, 29:-0.09440, 30:-0.41983, 31:-0.43168, 32:-0.28569, 33: 0.45175, 34:-0.71591, 35:-0.91884
    41 |      |  1:-0.73732,  2: 0.81302,  3: 0.40043,  4: 0.69627,  5: 0.63215,  6: 0.25380,  7:-0.87653,  8: 0.23711,  9:-0.34687,
                10: 0.33499, 11:-0.74511, 12:-0.96848, 13:-0.82380, 14:-0.15641, 15:-0.04567, 16: 0.67291, 17:-0.78277, 18: 0.24146,
                19: 0.45230, 20: 0.79757, 21: 0.69478, 22: 0.09416, 23:-0.01581, 24:-0.98016, 25:-0.87274, 26:-0.30674, 27: 0.43019,
                28:-0.06543, 29: 0.72186, 30: 0.30546, 31:-0.02447, 32: 0.88630, 33: 0.02406, 34: 0.28287, 35: 0.03719
    42 |      |  1:-0.66765,  2: 0.19800,  3: 0.72909,  4:-0.93813,  5:-0.64779,  6: 0.27816,  7: 0.93921,  8:-0.80808,  9: 0.66721,
                10: 0.47567, 11: 0.73572, 12:-0.75664, 13: 0.80193, 14:-0.11450, 15:-0.69224, 16:-0.21985, 17:-0.98815, 18:-0.66165,
                19:-0.18015, 20:-0.08037, 21:-0.92611, 22:-0.72868, 23: 0.00094, 24: 0.07225, 25: 0.54390, 26:-0.20737, 27:-0.25964,
                28: 0.70658, 29: 0.34023, 30: 0.87028, 31: 0.99655, 32: 0.14833, 33:-0.60794, 34: 0.45782, 35:-0.85184
    43 |      |  1: 0.04243,  2: 0.08384,  3:-0.00070,  4:-0.16958,  5:-0.33343,  6: 0.47948,  7:-0.73389,  8: 0.07624,  9:-0.52275,
                10:-0.54363, 11:-0.60618, 12:-0.29230, 13: 0.06536, 14: 0.51627, 15:-0.31548, 16: 0.30619, 17: 0.24129, 18:-0.15329,
                19:-0.19568, 20:-0.00961, 21:-0.89180, 22:-0.51697, 23: 0.91252, 24: 0.46638, 25:-0.86698, 26:-0.06604, 27: 0.91933,
                28: 0.93530, 29:-0.63952, 30: 0.46341, 31:-0.25914, 32:-0.40341, 33:-0.61564, 34:-0.13912, 35:-0.30889
    44 |      |  1: 0.56321,  2:-0.78762,  3:-0.37253,  4:-0.65540,  5: 0.73228,  6: 0.12567,  7:-0.80148,  8: 0.80618,  9:-0.51942,
                10: 0.41995, 11:-0.71214, 12: 0.75592, 13:-0.29615, 14: 0.58835, 15: 0.50786, 16: 0.47444, 17:-0.77525, 18: 0.14018,
                19: 0.90869, 20: 0.73295, 21:-0.83325, 22: 0.57660, 23: 0.88437, 24:-0.70400, 25: 0.55950, 26:-0.80201, 27: 0.09400,
                28:-0.20166, 29:-0.09063, 30: 0.24475, 31: 0.10941, 32:-0.00975, 33: 0.88064, 34: 0.47364, 35: 0.43175
    45 |      |  1:-0.82316,  2:-0.13328,  3: 0.91103,  4: 0.92078,  5:-0.54621,  6: 0.22151,  7:-0.46935,  8: 0.26171,  9:-0.29812,
                10:-0.44197, 11:-0.03312, 12:-0.13487, 13: 0.55160, 14: 0.32095, 15:-0.42045, 16: 0.31998, 17: 0.19606, 18:-0.13521,
                19:-0.20094, 20:-0.17535, 21: 0.67778, 22:-0.62197, 23: 0.02511, 24:-0.43797, 25:-0.68592, 26: 0.82894, 27:-0.21303,
                28: 0.64836, 29: 0.67243, 30: 0.78757, 31: 0.30073, 32: 0.51000, 33: 0.62129, 34: 0.77594, 35: 0.52102
    46 |      | 36:-0.93235, 37:-0.22559, 38: 0.05465, 39: 0.54892, 40: 0.41835, 41:-0.92755, 42: 0.47130, 43:-0.22256, 44: 0.24482,
                45:-0.37965
    47 |      | 36: 0.46842, 37:-0.80345, 38:-0.50847, 39:-0.49227, 40: 0.31017, 41: 0.53760, 42:-0.77834, 43:-0.39093, 44: 0.55671,
                45: 0.16177
    48 |      | 36: 0.75626, 37:-0.55094, 38:-0.97152, 39:-0.67103, 40:-0.07430, 41: 0.71294, 42:-0.60300, 43:-0.14643, 44:-0.26618,
                45: 0.26360
    49 |      | 36:-0.14374, 37: 0.96537, 38:-0.93190, 39: 0.94439, 40: 0.99552, 41:-0.66926, 42:-0.17908, 43:-0.55127, 44:-0.04586,
                45: 0.87661
    50 |      | 36:-0.67139, 37:-0.08503, 38: 0.69348, 39: 0.30442, 40:-0.01053, 41: 0.01132, 42:-0.42665, 43: 0.94687, 44:-0.84483,
                45:-0.93448
    51 |      | 36: 0.62481, 37: 0.94263, 38: 0.84019, 39:-0.45445, 40:-0.67074, 41:-0.66459, 42:-0.19166, 43:-0.73962, 44: 0.04105,
                45:-0.60295
    52 |      | 36: 0.76099, 37: 0.27803, 38: 0.42781, 39:-0.36266, 40:-0.55535, 41: 0.70450, 42: 0.27905, 43: 0.80741, 44: 0.94515,
                45: 0.67075
    53 |      | 36: 0.41314, 37:-0.67268, 38: 0.60455, 39: 0.56458, 40: 0.35794, 41: 0.93984, 42:-0.59235, 43:-0.15975, 44: 0.02015,
                45:-0.57892
    54 |      | 36: 0.45279, 37: 0.85126, 38:-0.23159, 39:-0.86499, 40:-0.72891, 41:-0.09000, 42:-0.46160, 43:-0.62892, 44: 0.30069,
                45:-0.40498
    55 |      | 36: 0.38242, 37: 0.26793, 38:-0.65143, 39: 0.66381, 40:-0.71678, 41:-0.98624, 42:-0.14027, 43:-0.29577, 44: 0.65351,
                45: 0.05891
    56 |      | 36: 0.63629, 37:-0.39796, 38: 0.28959, 39:-0.56372, 40:-0.92120, 41: 0.76898, 42: 0.99782, 43:-0.90128, 44: 0.86069,
                45:-0.05490
    57 |      | 36: 0.77505, 37:-0.31022, 38:-0.11229, 39:-0.84061, 40:-0.35674, 41: 0.61836, 42: 0.17830, 43: 0.65128, 44:-0.28406,
                45: 0.38657
    58 |      | 36:-0.98900, 37: 0.92458, 38: 0.36977, 39: 0.11936, 40:-0.44316, 41: 0.72865, 42: 0.87806, 43: 0.52421, 44: 0.22166,
                45:-0.04436
    59 |      | 36:-0.24629, 37: 0.09455, 38: 0.32703, 39:-0.93953, 40:-0.09806, 41: 0.44288, 42: 0.20322, 43:-0.61115, 44: 0.09258,
                45: 0.13515
    60 |      | 36: 0.95052, 37:-0.40559, 38:-0.82114, 39: 0.02981, 40: 0.01923, 41:-0.36893, 42: 0.74738, 43:-0.25782, 44: 0.33581,
                45: 0.02583
    61 |      | 36:-0.59953, 37: 0.98484, 38: 0.71985, 39:-0.73724, 40: 0.66371, 41: 0.05756, 42:-0.92821, 43: 0.31268, 44: 0.92507,
                45:-0.48724
    62 |      | 36:-0.96691, 37:-0.00964, 38: 0.32006, 39:-0.89770, 40: 0.22639, 41:-0.44599, 42:-0.18828, 43:-0.91116, 44: 0.86631,
                45: 0.19079
    63 |      | 36:-0.20693, 37:-0.06672, 38:-0.50560, 39:-0.61729, 40: 0.56608, 41: 0.98489, 42:-0.95851, 43: 0.94674, 44:-0.17094,
                45: 0.99864
    64 |      | 36: 0.60538, 37: 0.61628, 38:-0.00805, 39:-0.68098, 40: 0.56896, 41:-0.36777, 42:-0.85318, 43: 0.84104, 44: 0.68020,
                45:-0.72240
    65 |      | 36:-0.63243, 37:-0.07688, 38: 0.21735, 39:-0.00612, 40:-0.26812, 41: 0.54978, 42:-0.04963, 43: 0.43143, 44:-0.75570,
                45:-0.52671
    66 |      | 36: 0.93915, 37: 0.22125, 38:-0.52053, 39:-0.52942, 40:-0.44528, 41:-0.68461, 42:-0.31012, 43: 0.50408, 44: 0.21084,
                45: 0.13080
    67 |      | 36: 0.14558, 37: 0.62031, 38:-0.67634, 39: 0.80557, 40:-0.63024, 41: 0.48524, 42: 0.97237, 43: 0.36892, 44:-0.34844,
                45: 0.22710
    68 |      | 36:-0.51150, 37:-0.93790, 38:-0.16595, 39: 0.64464, 40:-0.57417, 41: 0.81723, 42: 0.34906, 43: 0.07541, 44:-0.08466,
                45:-0.07994
    69 |      | 36: 0.35719, 37: 0.02693, 38:-0.01635, 39:-0.69560, 40: 0.93921, 41: 0.60627, 42: 0.51589, 43:-0.46469, 44:-0.36646,
                45: 0.01245
    70 |      | 36:-0.99036, 37: 0.96048, 38: 0.31967, 39:-0.48810, 40: 0.82429, 41:-0.57346, 42: 0.81512, 43: 0.81205, 44: 0.93518,
                45:-0.53655
    71 |      | 36:-0.37558, 37: 0.01055, 38:-0.93575, 39:-0.82379, 40:-0.38077, 41: 0.36271, 42:-0.69604, 43: 0.82383, 44: 0.23792,
                45: 0.65269
    72 |      | 36: 0.34767, 37:-0.58122, 38: 0.69387, 39: 0.65395, 40: 0.46603, 41:-0.22478, 42:-0.70572, 43: 0.06557, 44: 0.96875,
                45: 0.61742
    73 |      | 36: 0.14406, 37:-0.18582, 38: 0.52744, 39: 0.39848, 40:-0.16711, 41: 0.51254, 42: 0.98702, 43: 0.88329, 44:-0.49272,
                45: 0.39782
    74 |      | 36: 0.51316, 37: 0.29928, 38: 0.98015, 39:-0.09457, 40:-0.31086, 41: 0.66067, 42:-0.94577, 43:-0.93243, 44: 0.32549,
                45:-0.55472
    75 |      | 36: 0.41587, 37:-0.38886, 38:-0.47740, 39: 0.91257, 40: 0.05789, 41: 0.84790, 42:-0.73589, 43: 0.72905, 44:-0.88566,
                45: 0.27094
    76 |      | 36: 0.70666, 37:-0.47329, 38: 0.76430, 39:-0.80357, 40: 0.90618, 41: 0.49746, 42:-0.46365, 43: 0.75507, 44:-0.66685,
                45:-0.14605
    77 |      | 36: 0.31267, 37: 0.23652, 38:-0.06910, 39: 0.92335, 40: 0.03681, 41: 0.34597, 42:-0.40199, 43:-0.42312, 44:-0.46173,
                45: 0.57310
    78 |      | 36: 0.96121, 37: 0.94606, 38: 0.33112, 39: 0.05242, 40: 0.42324, 41: 0.23741, 42:-0.72508, 43: 0.96804, 44: 0.20250,
                45:-0.99227
    79 |      | 36:-0.90052, 37: 0.21963, 38: 0.08054, 39:-0.51069, 40:-0.69578, 41: 0.17005, 42:-0.03934, 43:-0.40547, 44:-0.86964,
                45: 0.80693
    80 |      | 36: 0.04503, 37: 0.59966, 38: 0.45813, 39:-0.36158, 40:-0.65125, 41:-0.33789, 42:-0.67192, 43: 0.80844, 44: 0.41542,
                45:-0.63513
    81 |      | 36:-0.69677, 37: 0.92032, 38: 0.98409, 39:-0.35633, 40:-0.35532, 41: 0.74252, 42:-0.60860, 43:-0.73802, 44: 0.50585,
                45:-0.66340
-------|------|---------------------------------------------------------------------------------------------------------------------


layer definition section :

layer | unitNo.
------|----------------------------------------------------------------------------------------------------------------------------
    2 | 36, 37, 38, 39, 40, 41, 42, 43, 44, 45
    3 | 46, 47, 48, 49, 50, 51, 52, 53, 54, 55, 56, 57, 58, 59, 60, 61, 62, 63, 64, 65, 66, 67, 68, 69, 70, 71, 72, 73, 74, 75, 76,
        77, 78, 79, 80, 81
------|----------------------------------------------------------------------------------------------------------------------------
