SNNS network definition file V1.4-3D
generated at Mon Nov 22 10:26:15 2010

network name : default
source files :
no. of units : 53
no. of connections : 430
no. of unit types : 0
no. of site types : 0


learning function : Std_Backpropagation
update function   : Topological_Order


unit default section :

act      | bias     | st | subnet | layer | act func     | out func
---------|----------|----|--------|-------|--------------|-------------
 0.00000 |  0.00000 | h  |      0 |     1 | Act_Logistic | Out_Identity 
---------|----------|----|--------|-------|--------------|-------------


unit definition section :

no. | typeName | unitName | act      | bias     | st | position | act func | out func | sites
----|----------|----------|----------|----------|----|----------|----------|----------|-------
  1 |          | noName   |  1.00000 | -0.41142 | i  |  1, 1, 1 |||
  2 |          | noName   |  1.00000 | -0.71490 | i  |  2, 1, 1 |||
  3 |          | noName   |  1.00000 | -0.79418 | i  |  3, 1, 1 |||
  4 |          | noName   |  1.00000 | -0.84198 | i  |  4, 1, 1 |||
  5 |          | noName   |  1.00000 |  0.92303 | i  |  5, 1, 1 |||
  6 |          | noName   |  0.00000 | -0.53087 | i  |  1, 2, 1 |||
  7 |          | noName   |  0.00000 | -0.81048 | i  |  2, 2, 1 |||
  8 |          | noName   |  0.00000 |  0.30650 | i  |  3, 2, 1 |||
  9 |          | noName   |  0.00000 |  0.05747 | i  |  4, 2, 1 |||
 10 |          | noName   |  1.00000 |  0.68932 | i  |  5, 2, 1 |||
 11 |          | noName   |  0.00000 |  0.56822 | i  |  1, 3, 1 |||
 12 |          | noName   |  0.00000 |  0.32218 | i  |  2, 3, 1 |||
 13 |          | noName   |  0.00000 | -0.25340 | i  |  3, 3, 1 |||
 14 |          | noName   |  1.00000 | -0.16086 | i  |  4, 3, 1 |||
 15 |          | noName   |  0.00000 |  0.18986 | i  |  5, 3, 1 |||
 16 |          | noName   |  0.00000 | -0.92383 | i  |  1, 4, 1 |||
 17 |          | noName   |  0.00000 |  0.13205 | i  |  2, 4, 1 |||
 18 |          | noName   |  1.00000 |  0.22904 | i  |  3, 4, 1 |||
 19 |          | noName   |  0.00000 | -0.08304 | i  |  4, 4, 1 |||
 20 |          | noName   |  0.00000 |  0.59893 | i  |  5, 4, 1 |||
 21 |          | noName   |  0.00000 | -0.73199 | i  |  1, 5, 1 |||
 22 |          | noName   |  1.00000 |  0.25956 | i  |  2, 5, 1 |||
 23 |          | noName   |  0.00000 | -0.14249 | i  |  3, 5, 1 |||
 24 |          | noName   |  0.00000 | -0.36216 | i  |  4, 5, 1 |||
 25 |          | noName   |  1.00000 |  0.69805 | i  |  5, 5, 1 |||
 26 |          | noName   |  1.00000 |  0.94214 | i  |  1, 6, 1 |||
 27 |          | noName   |  0.00000 | -0.94757 | i  |  2, 6, 1 |||
 28 |          | noName   |  0.00000 | -0.15537 | i  |  3, 6, 1 |||
 29 |          | noName   |  0.00000 |  0.14414 | i  |  4, 6, 1 |||
 30 |          | noName   |  0.00000 |  0.07987 | i  |  5, 6, 1 |||
 31 |          | noName   |  1.00000 |  0.18314 | i  |  1, 7, 1 |||
 32 |          | noName   |  1.00000 | -0.09708 | i  |  2, 7, 1 |||
 33 |          | noName   |  1.00000 |  0.37297 | i  |  3, 7, 1 |||
 34 |          | noName   |  1.00000 | -0.07859 | i  |  4, 7, 1 |||
 35 |          | noName   |  1.00000 | -0.13962 | i  |  5, 7, 1 |||
 36 |          | noName   |  0.40775 | -0.39622 | h  |  7, 1, 1 |||
 37 |          | noName   |  0.67604 | -0.93468 | h  |  7, 2, 1 |||
 38 |          | noName   |  0.67507 |  1.05721 | h  |  7, 3, 1 |||
 39 |          | noName   |  0.01802 | -3.34356 | h  |  7, 4, 1 |||
 40 |          | noName   |  0.17672 |  2.10427 | h  |  7, 5, 1 |||
 41 |          | noName   |  0.00684 |  1.31280 | h  |  7, 6, 1 |||
 42 |          | noName   |  0.99969 | -0.47693 | h  |  7, 7, 1 |||
 43 |          | noName   |  0.23788 | -1.05529 | h  |  7, 8, 1 |||
 44 |          | noName   |  0.02869 |  1.00355 | h  |  7, 9, 1 |||
 45 |          | noName   |  0.89467 | -0.56452 | h  |  7,10, 1 |||
 46 |          | noName   |  0.02743 | -1.58346 | o  |  9, 4, 1 |||
 47 |          | noName   |  0.35471 | -0.10596 | o  | 10, 4, 1 |||
 48 |          | noName   |  0.52494 | -0.78760 | o  | 11, 4, 1 |||
 49 |          | noName   |  0.94567 | -1.26108 | o  | 12, 4, 1 |||
 50 |          | noName   |  0.88881 |  1.47319 | o  | 13, 4, 1 |||
 51 |          | noName   |  0.00667 |  1.49849 | o  | 14, 4, 1 |||
 52 |          | noName   |  0.99596 |  1.70364 | o  | 15, 4, 1 |||
 53 |          | noName   |  0.01077 | -3.72705 | o  | 16, 4, 1 |||
----|----------|----------|----------|----------|----|----------|----------|----------|-------


connection definition section :

target | site | source:weight
-------|------|---------------------------------------------------------------------------------------------------------------------
    36 |      | 35: 0.98840, 34:-0.20800, 33:-1.08188, 32:-1.07923, 31: 0.06240, 30:-0.20577, 29:-0.22856, 28: 0.45204, 27: 0.43408,
                26:-3.31523, 25: 0.16958, 24:-0.12794, 23: 0.50956, 22:-0.03895, 21:-2.62568, 20:-0.69330, 19: 0.36067, 18: 0.37588,
                17: 0.16721, 16:-1.94001, 15:-1.61004, 14: 0.40732, 13:-1.16977, 12: 1.18799, 11:-0.55072, 10: 0.37213,  9:-0.55456,
                 8:-0.78088,  7:-0.74796,  6: 1.75700,  5:-0.68872,  4: 1.04447,  3: 1.56014,  2: 2.43124,  1:-0.97663
    37 |      | 35: 2.99685, 34: 0.54828, 33:-0.41610, 32: 1.22659, 31:-0.88888, 30:-1.67055, 29:-1.04114, 28: 0.70083, 27:-0.11517,
                26:-0.10469, 25:-0.84127, 24:-0.84381, 23: 0.68320, 22: 0.86616, 21:-1.45646, 20:-0.87057, 19:-0.90871, 18: 1.35241,
                17: 3.45891, 16: 0.86466, 15: 2.16314, 14: 0.11509, 13: 0.05941, 12:-0.62238, 11:-0.59182, 10: 2.10910,  9: 2.14240,
                 8: 0.40714,  7:-1.58508,  6: 1.53003,  5:-0.02191,  4:-2.28995,  3: 0.52117,  2:-0.59070,  1:-2.91184
    38 |      | 35:-0.52369, 34: 0.14063, 33:-0.51778, 32: 0.14303, 31: 0.47978, 30: 1.35197, 29: 3.55603, 28:-3.03358, 27: 0.77887,
                26: 0.15990, 25:-0.10909, 24: 0.29217, 23: 0.46016, 22:-0.52401, 21: 2.08778, 20:-2.38510, 19: 1.84851, 18:-2.14116,
                17: 0.79169, 16: 1.02892, 15:-1.63155, 14: 0.25853, 13: 0.15113, 12:-0.46389, 11:-1.85742, 10:-0.49897,  9:-0.27931,
                 8:-0.56595,  7: 0.68158,  6:-2.85280,  5: 2.21529,  4: 1.39782,  3:-0.32559,  2: 0.74282,  1:-1.22354
    39 |      | 35: 2.01861, 34: 0.09215, 33:-1.38280, 32: 0.96103, 31:-3.37641, 30: 2.72487, 29: 0.88282, 28:-1.03391, 27:-0.04628,
                26:-1.21246, 25: 0.01281, 24:-1.59487, 23: 0.00116, 22:-0.56698, 21:-0.26901, 20: 2.10873, 19:-0.46880, 18:-2.19865,
                17:-0.04854, 16: 1.78953, 15:-0.93966, 14: 1.17235, 13: 0.13519, 12:-2.13900, 11: 1.06995, 10:-2.40975,  9:-0.75870,
                 8:-0.50156,  7: 1.69431,  6:-0.82343,  5: 2.20196,  4: 0.34120,  3: 1.39067,  2: 0.92978,  1: 1.37183
    40 |      | 35:-2.16695, 34:-1.10614, 33: 0.43103, 32: 0.85429, 31: 0.63307, 30:-0.68578, 29: 1.22509, 28: 2.07794, 27:-1.30998,
                26: 2.38775, 25:-2.12094, 24: 1.04648, 23: 0.40424, 22: 1.50994, 21: 0.07580, 20: 0.49174, 19:-0.80562, 18: 0.08943,
                17:-0.66615, 16:-0.98027, 15:-1.14348, 14: 0.47697, 13:-0.00955, 12: 0.16507, 11: 1.68104, 10: 1.22743,  9:-0.52348,
                 8: 0.34963,  7: 1.13947,  6: 2.58316,  5:-0.48607,  4:-1.08968,  3:-1.44066,  2:-1.31607,  1:-1.52640
    41 |      | 35:-1.44027, 34:-0.17507, 33: 1.85678, 32: 0.56544, 31: 0.73700, 30:-0.47368, 29:-0.90186, 28: 0.53296, 27:-1.31065,
                26:-0.97914, 25: 0.04798, 24:-0.91997, 23:-0.01729, 22:-0.24682, 21:-1.34964, 20: 0.39619, 19: 1.95129, 18: 2.51420,
                17:-0.18276, 16:-0.34874, 15:-0.13075, 14:-0.54523, 13:-0.10707, 12:-1.33958, 11: 1.99737, 10:-3.41302,  9:-0.09277,
                 8: 0.96934,  7:-0.00401,  6: 0.75710,  5:-0.86658,  4:-1.86254,  3:-0.20069,  2:-0.91053,  1:-1.37229
    42 |      | 35:-1.74623, 34:-0.10746, 33: 0.19939, 32:-0.16429, 31:-2.21231, 30: 2.74224, 29: 0.99516, 28:-1.54193, 27: 1.97500,
                26:-0.95980, 25: 2.31503, 24: 0.80178, 23:-0.13097, 22: 1.04365, 21:-1.73044, 20:-1.23976, 19: 0.19052, 18: 0.78998,
                17: 0.49387, 16:-0.96859, 15: 1.00580, 14: 0.30176, 13:-1.31281, 12:-1.11973, 11:-0.70276, 10: 1.95736,  9: 0.02091,
                 8: 0.17907,  7:-1.65369,  6:-0.58880,  5:-0.41613,  4: 2.47379,  3: 3.31710,  2: 1.29897,  1: 0.45233
    43 |      | 35:-2.34061, 34: 0.05737, 33: 1.28188, 32: 1.04126, 31:-2.22647, 30:-1.17516, 29:-0.97244, 28: 0.77763, 27:-0.30605,
                26: 1.13263, 25:-0.40289, 24:-0.52285, 23:-0.31370, 22: 0.30656, 21: 0.83863, 20:-0.91708, 19:-0.74978, 18: 0.55672,
                17: 0.59489, 16: 0.21716, 15: 1.11695, 14: 0.72645, 13: 0.81943, 12: 0.64006, 11: 0.17286, 10: 0.12136,  9: 0.30114,
                 8:-0.05065,  7: 0.73169,  6: 0.68180,  5:-0.84260,  4:-0.62487,  3: 1.50452,  2: 0.44522,  1:-0.84557
    44 |      | 35:-0.02023, 34: 0.32817, 33:-0.24005, 32: 0.32460, 31:-1.87875, 30: 0.53987, 29:-1.56610, 28:-0.01805, 27:-0.53771,
                26:-1.92971, 25:-0.05163, 24:-0.91662, 23:-0.74298, 22:-0.15611, 21:-0.34594, 20:-0.53806, 19: 0.69936, 18:-0.11049,
                17:-0.75076, 16: 0.05905, 15: 1.13457, 14:-0.50815, 13:-0.62383, 12: 0.10288, 11: 0.21841, 10:-1.03805,  9: 1.33386,
                 8:-1.41838,  7: 1.22457,  6:-0.36276,  5:-0.59440,  4: 0.81892,  3: 2.49644,  2: 0.84364,  1:-2.80971
    45 |      | 35:-2.18746, 34: 2.19117, 33: 0.39564, 32: 2.12801, 31:-0.04235, 30: 1.22265, 29:-1.37630, 28: 0.62576, 27:-0.19509,
                26: 1.01525, 25: 0.86540, 24:-0.40361, 23:-0.11006, 22: 0.26096, 21:-0.66157, 20:-1.51524, 19:-0.81239, 18:-0.12457,
                17:-0.80479, 16:-0.15657, 15: 0.62312, 14: 0.12973, 13:-1.30017, 12:-0.19377, 11:-2.44869, 10:-0.35055,  9:-0.29824,
                 8:-1.16969,  7:-0.10295,  6:-2.23273,  5:-2.99685,  4: 1.34428,  3:-0.05370,  2: 1.59233,  1:-1.46342
    46 |      | 45: 0.76809, 44: 0.16154, 43:-0.78180, 42:-0.43320, 41: 0.04624, 40:-0.59061, 39: 0.30909, 38:-1.37719, 37:-1.32107,
                36:-0.33448
    47 |      | 45: 0.97301, 44: 2.18214, 43: 0.31147, 42:-1.96454, 41: 2.05981, 40: 6.49869, 39:-2.58989, 38: 0.07110, 37:-0.67110,
                36:-0.60316
    48 |      | 45:-1.52381, 44:-2.49297, 43:-0.32597, 42: 2.28185, 41:-1.78648, 40:-6.23805, 39: 2.70453, 38: 0.15573, 37: 1.12747,
                36: 0.77803
    49 |      | 45:-4.74308, 44:-2.95332, 43:-0.26843, 42: 6.43763, 41:-3.73694, 40:-1.78894, 39: 1.14009, 38: 0.63077, 37:-0.53803,
                36: 5.72285
    50 |      | 45: 5.56524, 44: 0.36376, 43:-2.42916, 42:-5.00075, 41:-2.84208, 40: 2.82817, 39:-0.57140, 38:-4.37316, 37: 3.04862,
                36: 3.95859
    51 |      | 45: 0.82824, 44:-1.98865, 43:-1.07180, 42:-0.17941, 41: 3.67093, 40: 1.46371, 39: 5.61167, 38:-2.91869, 37:-7.02707,
                36:-1.02087
    52 |      | 45: 3.84491, 44: 1.90522, 43:-1.63205, 42:-0.57685, 41:-3.06169, 40: 0.14773, 39:-2.27931, 38: 8.00490, 37:-5.62166,
                36:-0.72074
    53 |      | 45:-0.79023, 44: 5.63733, 43: 3.37985, 42:-5.52862, 41:-2.77241, 40: 1.27034, 39: 6.74794, 38: 1.79309, 37: 1.43769,
                36: 4.82147
-------|------|---------------------------------------------------------------------------------------------------------------------


layer definition section :

layer | unitNo.
------|----------------------------------------------------------------------------------------------------------------------------
    2 | 36, 37, 38, 39, 40, 41, 42, 43, 44, 45
    3 | 46, 47, 48, 49, 50, 51, 52, 53
------|----------------------------------------------------------------------------------------------------------------------------
